<?xml version="1.0"?>
<opencv_storage>
<cascade>
  <stageType>BOOST</stageType>
  <featureType>HAAR</featureType>
  <height>30</height>
  <width>30</width>
  <stageParams>
    <boostType>DAB</boostType>
    <minHitRate>9.9500000476837158e-01</minHitRate>
    <maxFalseAlarm>5.0000000000000000e-01</maxFalseAlarm>
    <weightTrimRate>9.4999998807907104e-01</weightTrimRate>
    <maxDepth>1</maxDepth>
    <maxWeakCount>100</maxWeakCount></stageParams>
  <featureParams>
    <maxCatCount>0</maxCatCount>
    <featSize>1</featSize>
    <mode>BASIC</mode></featureParams>
  <stageNum>10</stageNum>
  <stages>
    <!-- stage 0 -->
    <_>
      <maxWeakCount>10</maxWeakCount>
      <stageThreshold>-2.1776399612426758e+00</stageThreshold>
      <weakClassifiers>
        <_>
          <internalNodes>
            0 -1 65 5.4647490382194519e-02</internalNodes>
          <leafValues>
            1.7555526494979858e+00 -1.7555526494979858e+00</leafValues></_>
        <_>
          <internalNodes>
            0 -1 49 8.9178131893277168e-03</internalNodes>
          <leafValues>
            -1.2798409461975098e+00 1.2798409461975098e+00</leafValues></_>
        <_>
          <internalNodes>
            0 -1 19 -2.5439471006393433e-01</internalNodes>
          <leafValues>
            -9.3980151414871216e-01 9.3980151414871216e-01</leafValues></_>
        <_>
          <internalNodes>
            0 -1 134 -2.4199155159294605e-03</internalNodes>
          <leafValues>
            9.9082797765731812e-01 -9.9082797765731812e-01</leafValues></_>
        <_>
          <internalNodes>
            0 -1 64 -2.5374125689268112e-03</internalNodes>
          <leafValues>
            7.9329884052276611e-01 -7.9329884052276611e-01</leafValues></_>
        <_>
          <internalNodes>
            0 -1 70 1.0024519637227058e-02</internalNodes>
          <leafValues>
            -7.4041795730590820e-01 7.4041795730590820e-01</leafValues></_>
        <_>
          <internalNodes>
            0 -1 1 2.8578628553077579e-04</internalNodes>
          <leafValues>
            -7.9973047971725464e-01 7.9973047971725464e-01</leafValues></_>
        <_>
          <internalNodes>
            0 -1 137 -3.5391082055866718e-03</internalNodes>
          <leafValues>
            7.0945161581039429e-01 -7.0945161581039429e-01</leafValues></_>
        <_>
          <internalNodes>
            0 -1 143 4.5690510887652636e-04</internalNodes>
          <leafValues>
            8.2343435287475586e-01 -8.2343435287475586e-01</leafValues></_>
        <_>
          <internalNodes>
            0 -1 47 4.2340732179582119e-03</internalNodes>
          <leafValues>
            -7.1764802932739258e-01 7.1764802932739258e-01</leafValues></_></weakClassifiers></_>
    <!-- stage 1 -->
    <_>
      <maxWeakCount>17</maxWeakCount>
      <stageThreshold>-1.4844347238540649e+00</stageThreshold>
      <weakClassifiers>
        <_>
          <internalNodes>
            0 -1 37 3.1190842390060425e-01</internalNodes>
          <leafValues>
            1.6364626884460449e+00 -1.6364626884460449e+00</leafValues></_>
        <_>
          <internalNodes>
            0 -1 126 -1.5248339623212814e-02</internalNodes>
          <leafValues>
            1.1113593578338623e+00 -1.1113593578338623e+00</leafValues></_>
        <_>
          <internalNodes>
            0 -1 62 1.9149640575051308e-03</internalNodes>
          <leafValues>
            -8.8022279739379883e-01 8.8022279739379883e-01</leafValues></_>
        <_>
          <internalNodes>
            0 -1 32 -1.9313793629407883e-02</internalNodes>
          <leafValues>
            7.2939324378967285e-01 -7.2939324378967285e-01</leafValues></_>
        <_>
          <internalNodes>
            0 -1 5 1.6733227297663689e-02</internalNodes>
          <leafValues>
            -7.0307153463363647e-01 7.0307153463363647e-01</leafValues></_>
        <_>
          <internalNodes>
            0 -1 72 5.6461752392351627e-03</internalNodes>
          <leafValues>
            -7.0634990930557251e-01 7.0634990930557251e-01</leafValues></_>
        <_>
          <internalNodes>
            0 -1 108 4.7292307135649025e-04</internalNodes>
          <leafValues>
            6.4319586753845215e-01 -6.4319586753845215e-01</leafValues></_>
        <_>
          <internalNodes>
            0 -1 117 -1.1820092797279358e-02</internalNodes>
          <leafValues>
            6.2900352478027344e-01 -6.2900352478027344e-01</leafValues></_>
        <_>
          <internalNodes>
            0 -1 87 7.6772109605371952e-03</internalNodes>
          <leafValues>
            -6.0273009538650513e-01 6.0273009538650513e-01</leafValues></_>
        <_>
          <internalNodes>
            0 -1 109 -9.1803260147571564e-04</internalNodes>
          <leafValues>
            -7.9153275489807129e-01 7.9153275489807129e-01</leafValues></_>
        <_>
          <internalNodes>
            0 -1 29 5.0247516483068466e-03</internalNodes>
          <leafValues>
            -5.9067958593368530e-01 5.9067958593368530e-01</leafValues></_>
        <_>
          <internalNodes>
            0 -1 82 4.0914930286817253e-04</internalNodes>
          <leafValues>
            -5.8970123529434204e-01 5.8970123529434204e-01</leafValues></_>
        <_>
          <internalNodes>
            0 -1 21 1.4976280508562922e-03</internalNodes>
          <leafValues>
            -5.3088063001632690e-01 5.3088063001632690e-01</leafValues></_>
        <_>
          <internalNodes>
            0 -1 132 2.0130407938268036e-04</internalNodes>
          <leafValues>
            6.1420512199401855e-01 -6.1420512199401855e-01</leafValues></_>
        <_>
          <internalNodes>
            0 -1 77 8.5222676396369934e-02</internalNodes>
          <leafValues>
            -5.3410327434539795e-01 5.3410327434539795e-01</leafValues></_>
        <_>
          <internalNodes>
            0 -1 66 -1.1167492717504501e-02</internalNodes>
          <leafValues>
            5.7231056690216064e-01 -5.7231056690216064e-01</leafValues></_>
        <_>
          <internalNodes>
            0 -1 43 1.9144410034641623e-03</internalNodes>
          <leafValues>
            6.1550426483154297e-01 -6.1550426483154297e-01</leafValues></_></weakClassifiers></_>
    <!-- stage 2 -->
    <_>
      <maxWeakCount>18</maxWeakCount>
      <stageThreshold>-1.3261824846267700e+00</stageThreshold>
      <weakClassifiers>
        <_>
          <internalNodes>
            0 -1 20 -3.5094287991523743e-01</internalNodes>
          <leafValues>
            -1.6224533319473267e+00 1.6224533319473267e+00</leafValues></_>
        <_>
          <internalNodes>
            0 -1 42 1.9671255722641945e-02</internalNodes>
          <leafValues>
            -9.3967139720916748e-01 9.3967139720916748e-01</leafValues></_>
        <_>
          <internalNodes>
            0 -1 93 -3.1858205795288086e-02</internalNodes>
          <leafValues>
            8.4939616918563843e-01 -8.4939616918563843e-01</leafValues></_>
        <_>
          <internalNodes>
            0 -1 116 -2.0551076886476949e-05</internalNodes>
          <leafValues>
            7.8267931938171387e-01 -7.8267931938171387e-01</leafValues></_>
        <_>
          <internalNodes>
            0 -1 41 1.3667109305970371e-04</internalNodes>
          <leafValues>
            6.4667683839797974e-01 -6.4667683839797974e-01</leafValues></_>
        <_>
          <internalNodes>
            0 -1 9 1.1258274316787720e-01</internalNodes>
          <leafValues>
            -7.0346981287002563e-01 7.0346981287002563e-01</leafValues></_>
        <_>
          <internalNodes>
            0 -1 102 -1.2161411177658010e-05</internalNodes>
          <leafValues>
            6.6284793615341187e-01 -6.6284793615341187e-01</leafValues></_>
        <_>
          <internalNodes>
            0 -1 23 -6.8466365337371826e-02</internalNodes>
          <leafValues>
            5.6270444393157959e-01 -5.6270444393157959e-01</leafValues></_>
        <_>
          <internalNodes>
            0 -1 122 -1.4338253531605005e-03</internalNodes>
          <leafValues>
            -7.1383208036422729e-01 7.1383208036422729e-01</leafValues></_>
        <_>
          <internalNodes>
            0 -1 85 -1.7287466675043106e-02</internalNodes>
          <leafValues>
            6.6582036018371582e-01 -6.6582036018371582e-01</leafValues></_>
        <_>
          <internalNodes>
            0 -1 68 6.7241462602396496e-06</internalNodes>
          <leafValues>
            -5.9032809734344482e-01 5.9032809734344482e-01</leafValues></_>
        <_>
          <internalNodes>
            0 -1 13 5.1313568837940693e-04</internalNodes>
          <leafValues>
            6.1769360303878784e-01 -6.1769360303878784e-01</leafValues></_>
        <_>
          <internalNodes>
            0 -1 59 1.5345782972872257e-02</internalNodes>
          <leafValues>
            -6.1488401889801025e-01 6.1488401889801025e-01</leafValues></_>
        <_>
          <internalNodes>
            0 -1 45 6.1489531071856618e-04</internalNodes>
          <leafValues>
            -4.3628960847854614e-01 4.3628960847854614e-01</leafValues></_>
        <_>
          <internalNodes>
            0 -1 81 6.8504355112963822e-06</internalNodes>
          <leafValues>
            -4.7924649715423584e-01 4.7924649715423584e-01</leafValues></_>
        <_>
          <internalNodes>
            0 -1 83 9.4204477500170469e-04</internalNodes>
          <leafValues>
            6.0515910387039185e-01 -6.0515910387039185e-01</leafValues></_>
        <_>
          <internalNodes>
            0 -1 74 6.1293479055166245e-02</internalNodes>
          <leafValues>
            -5.3590339422225952e-01 5.3590339422225952e-01</leafValues></_>
        <_>
          <internalNodes>
            0 -1 124 -3.7710717879235744e-04</internalNodes>
          <leafValues>
            -5.5709517002105713e-01 5.5709517002105713e-01</leafValues></_></weakClassifiers></_>
    <!-- stage 3 -->
    <_>
      <maxWeakCount>20</maxWeakCount>
      <stageThreshold>-1.7983890771865845e+00</stageThreshold>
      <weakClassifiers>
        <_>
          <internalNodes>
            0 -1 11 4.6845421195030212e-01</internalNodes>
          <leafValues>
            1.5879931449890137e+00 -1.5879931449890137e+00</leafValues></_>
        <_>
          <internalNodes>
            0 -1 136 -2.4082381059997715e-05</internalNodes>
          <leafValues>
            9.0984964370727539e-01 -9.0984964370727539e-01</leafValues></_>
        <_>
          <internalNodes>
            0 -1 4 4.7972880303859711e-02</internalNodes>
          <leafValues>
            -8.0220097303390503e-01 8.0220097303390503e-01</leafValues></_>
        <_>
          <internalNodes>
            0 -1 90 2.2402856498956680e-02</internalNodes>
          <leafValues>
            -6.9698965549468994e-01 6.9698965549468994e-01</leafValues></_>
        <_>
          <internalNodes>
            0 -1 135 8.6337795437430032e-06</internalNodes>
          <leafValues>
            -5.9484219551086426e-01 5.9484219551086426e-01</leafValues></_>
        <_>
          <internalNodes>
            0 -1 129 -1.8854183144867420e-03</internalNodes>
          <leafValues>
            -5.6011158227920532e-01 5.6011158227920532e-01</leafValues></_>
        <_>
          <internalNodes>
            0 -1 35 -5.2324384450912476e-02</internalNodes>
          <leafValues>
            6.1208564043045044e-01 -6.1208564043045044e-01</leafValues></_>
        <_>
          <internalNodes>
            0 -1 15 1.6913267970085144e-01</internalNodes>
          <leafValues>
            -5.9248912334442139e-01 5.9248912334442139e-01</leafValues></_>
        <_>
          <internalNodes>
            0 -1 60 -1.0427462257212028e-05</internalNodes>
          <leafValues>
            5.7218325138092041e-01 -5.7218325138092041e-01</leafValues></_>
        <_>
          <internalNodes>
            0 -1 24 2.2248674213187769e-05</internalNodes>
          <leafValues>
            -5.1920425891876221e-01 5.1920425891876221e-01</leafValues></_>
        <_>
          <internalNodes>
            0 -1 67 -2.7282587252557278e-03</internalNodes>
          <leafValues>
            5.6989091634750366e-01 -5.6989091634750366e-01</leafValues></_>
        <_>
          <internalNodes>
            0 -1 107 6.6886868808069266e-06</internalNodes>
          <leafValues>
            -5.6107676029205322e-01 5.6107676029205322e-01</leafValues></_>
        <_>
          <internalNodes>
            0 -1 111 -8.6063425987958908e-03</internalNodes>
          <leafValues>
            -6.3421851396560669e-01 6.3421851396560669e-01</leafValues></_>
        <_>
          <internalNodes>
            0 -1 46 3.9796024793758988e-04</internalNodes>
          <leafValues>
            -5.5615860223770142e-01 5.5615860223770142e-01</leafValues></_>
        <_>
          <internalNodes>
            0 -1 58 -1.0319855064153671e-02</internalNodes>
          <leafValues>
            5.0041419267654419e-01 -5.0041419267654419e-01</leafValues></_>
        <_>
          <internalNodes>
            0 -1 112 -3.4149065613746643e-03</internalNodes>
          <leafValues>
            -6.0051256418228149e-01 6.0051256418228149e-01</leafValues></_>
        <_>
          <internalNodes>
            0 -1 84 3.2597850076854229e-04</internalNodes>
          <leafValues>
            -5.1312977075576782e-01 5.1312977075576782e-01</leafValues></_>
        <_>
          <internalNodes>
            0 -1 94 6.7249388848722447e-06</internalNodes>
          <leafValues>
            -4.9100956320762634e-01 4.9100956320762634e-01</leafValues></_>
        <_>
          <internalNodes>
            0 -1 118 -6.6369129344820976e-03</internalNodes>
          <leafValues>
            -5.0911426544189453e-01 5.0911426544189453e-01</leafValues></_>
        <_>
          <internalNodes>
            0 -1 100 -9.3146786093711853e-03</internalNodes>
          <leafValues>
            5.0693756341934204e-01 -5.0693756341934204e-01</leafValues></_></weakClassifiers></_>
    <!-- stage 4 -->
    <_>
      <maxWeakCount>23</maxWeakCount>
      <stageThreshold>-1.2563370466232300e+00</stageThreshold>
      <weakClassifiers>
        <_>
          <internalNodes>
            0 -1 52 1.2008134275674820e-02</internalNodes>
          <leafValues>
            1.6137638092041016e+00 -1.6137638092041016e+00</leafValues></_>
        <_>
          <internalNodes>
            0 -1 130 -1.2613653205335140e-02</internalNodes>
          <leafValues>
            8.8407236337661743e-01 -8.8407236337661743e-01</leafValues></_>
        <_>
          <internalNodes>
            0 -1 17 -7.4241474270820618e-02</internalNodes>
          <leafValues>
            6.7907249927520752e-01 -6.7907249927520752e-01</leafValues></_>
        <_>
          <internalNodes>
            0 -1 73 5.0370385870337486e-03</internalNodes>
          <leafValues>
            -6.7932146787643433e-01 6.7932146787643433e-01</leafValues></_>
        <_>
          <internalNodes>
            0 -1 48 -2.4777986109256744e-03</internalNodes>
          <leafValues>
            5.5845630168914795e-01 -5.5845630168914795e-01</leafValues></_>
        <_>
          <internalNodes>
            0 -1 7 2.0447519421577454e-01</internalNodes>
          <leafValues>
            -6.3306450843811035e-01 6.3306450843811035e-01</leafValues></_>
        <_>
          <internalNodes>
            0 -1 26 -1.2691866140812635e-03</internalNodes>
          <leafValues>
            5.9784978628158569e-01 -5.9784978628158569e-01</leafValues></_>
        <_>
          <internalNodes>
            0 -1 55 -1.0093972086906433e-02</internalNodes>
          <leafValues>
            -6.0648900270462036e-01 6.0648900270462036e-01</leafValues></_>
        <_>
          <internalNodes>
            0 -1 95 4.6877553686499596e-03</internalNodes>
          <leafValues>
            -5.0234925746917725e-01 5.0234925746917725e-01</leafValues></_>
        <_>
          <internalNodes>
            0 -1 103 8.8028946265694685e-06</internalNodes>
          <leafValues>
            -5.1867496967315674e-01 5.1867496967315674e-01</leafValues></_>
        <_>
          <internalNodes>
            0 -1 54 2.3679735604673624e-03</internalNodes>
          <leafValues>
            -5.1678180694580078e-01 5.1678180694580078e-01</leafValues></_>
        <_>
          <internalNodes>
            0 -1 106 -3.5208006738685071e-04</internalNodes>
          <leafValues>
            -5.6636059284210205e-01 5.6636059284210205e-01</leafValues></_>
        <_>
          <internalNodes>
            0 -1 101 -2.7543858159333467e-03</internalNodes>
          <leafValues>
            5.6979167461395264e-01 -5.6979167461395264e-01</leafValues></_>
        <_>
          <internalNodes>
            0 -1 6 5.4600961506366730e-02</internalNodes>
          <leafValues>
            -5.1414799690246582e-01 5.1414799690246582e-01</leafValues></_>
        <_>
          <internalNodes>
            0 -1 56 -1.0669848961697426e-05</internalNodes>
          <leafValues>
            5.3628879785537720e-01 -5.3628879785537720e-01</leafValues></_>
        <_>
          <internalNodes>
            0 -1 115 -7.4855051934719086e-04</internalNodes>
          <leafValues>
            -6.3120985031127930e-01 6.3120985031127930e-01</leafValues></_>
        <_>
          <internalNodes>
            0 -1 96 5.5260304361581802e-04</internalNodes>
          <leafValues>
            -5.0370472669601440e-01 5.0370472669601440e-01</leafValues></_>
        <_>
          <internalNodes>
            0 -1 91 -1.2793020345270634e-02</internalNodes>
          <leafValues>
            4.5968267321586609e-01 -4.5968267321586609e-01</leafValues></_>
        <_>
          <internalNodes>
            0 -1 123 -6.0206529451534152e-04</internalNodes>
          <leafValues>
            -6.1786645650863647e-01 6.1786645650863647e-01</leafValues></_>
        <_>
          <internalNodes>
            0 -1 38 -3.4326333552598953e-03</internalNodes>
          <leafValues>
            4.5406579971313477e-01 -4.5406579971313477e-01</leafValues></_>
        <_>
          <internalNodes>
            0 -1 104 6.7001492425333709e-06</internalNodes>
          <leafValues>
            -5.2780288457870483e-01 5.2780288457870483e-01</leafValues></_>
        <_>
          <internalNodes>
            0 -1 86 1.2038120985380374e-05</internalNodes>
          <leafValues>
            -4.1164815425872803e-01 4.1164815425872803e-01</leafValues></_>
        <_>
          <internalNodes>
            0 -1 97 -6.8445669967331924e-06</internalNodes>
          <leafValues>
            5.1632279157638550e-01 -5.1632279157638550e-01</leafValues></_></weakClassifiers></_>
    <!-- stage 5 -->
    <_>
      <maxWeakCount>15</maxWeakCount>
      <stageThreshold>-1.2460888624191284e+00</stageThreshold>
      <weakClassifiers>
        <_>
          <internalNodes>
            0 -1 121 4.6460353769361973e-03</internalNodes>
          <leafValues>
            1.6738814115524292e+00 -1.6738814115524292e+00</leafValues></_>
        <_>
          <internalNodes>
            0 -1 89 -4.1314527392387390e-02</internalNodes>
          <leafValues>
            8.7651556730270386e-01 -8.7651556730270386e-01</leafValues></_>
        <_>
          <internalNodes>
            0 -1 10 4.6449460089206696e-02</internalNodes>
          <leafValues>
            -8.0414718389511108e-01 8.0414718389511108e-01</leafValues></_>
        <_>
          <internalNodes>
            0 -1 121 -9.7787391860038042e-04</internalNodes>
          <leafValues>
            -6.8970918655395508e-01 6.8970918655395508e-01</leafValues></_>
        <_>
          <internalNodes>
            0 -1 71 -1.2737702578306198e-02</internalNodes>
          <leafValues>
            7.5381219387054443e-01 -7.5381219387054443e-01</leafValues></_>
        <_>
          <internalNodes>
            0 -1 61 1.0084669105708599e-02</internalNodes>
          <leafValues>
            -6.2723493576049805e-01 6.2723493576049805e-01</leafValues></_>
        <_>
          <internalNodes>
            0 -1 127 -6.8563865497708321e-03</internalNodes>
          <leafValues>
            6.6528320312500000e-01 -6.6528320312500000e-01</leafValues></_>
        <_>
          <internalNodes>
            0 -1 128 4.0664520929567516e-04</internalNodes>
          <leafValues>
            7.5028872489929199e-01 -7.5028872489929199e-01</leafValues></_>
        <_>
          <internalNodes>
            0 -1 40 -1.0354082100093365e-02</internalNodes>
          <leafValues>
            6.1666488647460938e-01 -6.1666488647460938e-01</leafValues></_>
        <_>
          <internalNodes>
            0 -1 30 2.2629873827099800e-02</internalNodes>
          <leafValues>
            -6.2987267971038818e-01 6.2987267971038818e-01</leafValues></_>
        <_>
          <internalNodes>
            0 -1 75 -1.5768490266054869e-03</internalNodes>
          <leafValues>
            -6.3596171140670776e-01 6.3596171140670776e-01</leafValues></_>
        <_>
          <internalNodes>
            0 -1 12 2.4990910664200783e-02</internalNodes>
          <leafValues>
            -6.1191117763519287e-01 6.1191117763519287e-01</leafValues></_>
        <_>
          <internalNodes>
            0 -1 92 1.7106283921748400e-03</internalNodes>
          <leafValues>
            -5.0417518615722656e-01 5.0417518615722656e-01</leafValues></_>
        <_>
          <internalNodes>
            0 -1 51 2.0221612066961825e-04</internalNodes>
          <leafValues>
            5.8576577901840210e-01 -5.8576577901840210e-01</leafValues></_>
        <_>
          <internalNodes>
            0 -1 16 2.0707815885543823e-01</internalNodes>
          <leafValues>
            -4.5686435699462891e-01 4.5686435699462891e-01</leafValues></_></weakClassifiers></_>
    <!-- stage 6 -->
    <_>
      <maxWeakCount>12</maxWeakCount>
      <stageThreshold>-1.1535457372665405e+00</stageThreshold>
      <weakClassifiers>
        <_>
          <internalNodes>
            0 -1 131 5.8282713871449232e-04</internalNodes>
          <leafValues>
            1.7271856069564819e+00 -1.7271856069564819e+00</leafValues></_>
        <_>
          <internalNodes>
            0 -1 57 1.0562404990196228e-02</internalNodes>
          <leafValues>
            -9.6899503469467163e-01 9.6899503469467163e-01</leafValues></_>
        <_>
          <internalNodes>
            0 -1 131 -2.1954941621515900e-04</internalNodes>
          <leafValues>
            -9.0397036075592041e-01 9.0397036075592041e-01</leafValues></_>
        <_>
          <internalNodes>
            0 -1 110 1.6392426565289497e-02</internalNodes>
          <leafValues>
            -7.9102402925491333e-01 7.9102402925491333e-01</leafValues></_>
        <_>
          <internalNodes>
            0 -1 28 -3.1909756362438202e-02</internalNodes>
          <leafValues>
            6.9482249021530151e-01 -6.9482249021530151e-01</leafValues></_>
        <_>
          <internalNodes>
            0 -1 88 4.4560651294887066e-03</internalNodes>
          <leafValues>
            -6.5113019943237305e-01 6.5113019943237305e-01</leafValues></_>
        <_>
          <internalNodes>
            0 -1 139 3.5280591691844165e-04</internalNodes>
          <leafValues>
            8.1578934192657471e-01 -8.1578934192657471e-01</leafValues></_>
        <_>
          <internalNodes>
            0 -1 105 -1.5808206051588058e-02</internalNodes>
          <leafValues>
            6.9199395179748535e-01 -6.9199395179748535e-01</leafValues></_>
        <_>
          <internalNodes>
            0 -1 125 -3.3888261532410979e-04</internalNodes>
          <leafValues>
            -7.5300884246826172e-01 7.5300884246826172e-01</leafValues></_>
        <_>
          <internalNodes>
            0 -1 80 -1.3676390983164310e-02</internalNodes>
          <leafValues>
            7.3029828071594238e-01 -7.3029828071594238e-01</leafValues></_>
        <_>
          <internalNodes>
            0 -1 14 1.6302350908517838e-02</internalNodes>
          <leafValues>
            -6.0793679952621460e-01 6.0793679952621460e-01</leafValues></_>
        <_>
          <internalNodes>
            0 -1 98 3.2196211395785213e-04</internalNodes>
          <leafValues>
            7.1893817186355591e-01 -7.1893817186355591e-01</leafValues></_></weakClassifiers></_>
    <!-- stage 7 -->
    <_>
      <maxWeakCount>11</maxWeakCount>
      <stageThreshold>-5.5023050308227539e-01</stageThreshold>
      <weakClassifiers>
        <_>
          <internalNodes>
            0 -1 141 -5.4436887148767710e-04</internalNodes>
          <leafValues>
            -1.7786618471145630e+00 1.7786618471145630e+00</leafValues></_>
        <_>
          <internalNodes>
            0 -1 27 -7.4361093342304230e-02</internalNodes>
          <leafValues>
            9.5426857471466064e-01 -9.5426857471466064e-01</leafValues></_>
        <_>
          <internalNodes>
            0 -1 141 2.0589606720022857e-04</internalNodes>
          <leafValues>
            8.7568265199661255e-01 -8.7568265199661255e-01</leafValues></_>
        <_>
          <internalNodes>
            0 -1 0 7.0711329579353333e-02</internalNodes>
          <leafValues>
            -8.2251501083374023e-01 8.2251501083374023e-01</leafValues></_>
        <_>
          <internalNodes>
            0 -1 34 -9.1717456234619021e-04</internalNodes>
          <leafValues>
            -7.0925796031951904e-01 7.0925796031951904e-01</leafValues></_>
        <_>
          <internalNodes>
            0 -1 25 -9.4002306461334229e-02</internalNodes>
          <leafValues>
            7.4938607215881348e-01 -7.4938607215881348e-01</leafValues></_>
        <_>
          <internalNodes>
            0 -1 119 -1.8750692834146321e-04</internalNodes>
          <leafValues>
            -7.4694955348968506e-01 7.4694955348968506e-01</leafValues></_>
        <_>
          <internalNodes>
            0 -1 36 1.8826022744178772e-01</internalNodes>
          <leafValues>
            -7.3022842407226563e-01 7.3022842407226563e-01</leafValues></_>
        <_>
          <internalNodes>
            0 -1 8 -1.6067692195065320e-04</internalNodes>
          <leafValues>
            -7.4547338485717773e-01 7.4547338485717773e-01</leafValues></_>
        <_>
          <internalNodes>
            0 -1 79 -7.1957826614379883e-02</internalNodes>
          <leafValues>
            7.9425907135009766e-01 -7.9425907135009766e-01</leafValues></_>
        <_>
          <internalNodes>
            0 -1 78 -2.4866376770660281e-04</internalNodes>
          <leafValues>
            -7.4126815795898438e-01 7.4126815795898438e-01</leafValues></_></weakClassifiers></_>
    <!-- stage 8 -->
    <_>
      <maxWeakCount>14</maxWeakCount>
      <stageThreshold>-9.7400510311126709e-01</stageThreshold>
      <weakClassifiers>
        <_>
          <internalNodes>
            0 -1 114 4.8253266140818596e-04</internalNodes>
          <leafValues>
            1.7159945964813232e+00 -1.7159945964813232e+00</leafValues></_>
        <_>
          <internalNodes>
            0 -1 142 -4.3594112503342330e-04</internalNodes>
          <leafValues>
            -7.4866092205047607e-01 7.4866092205047607e-01</leafValues></_>
        <_>
          <internalNodes>
            0 -1 31 -1.1044298112392426e-01</internalNodes>
          <leafValues>
            7.0844078063964844e-01 -7.0844078063964844e-01</leafValues></_>
        <_>
          <internalNodes>
            0 -1 140 4.0841678855940700e-04</internalNodes>
          <leafValues>
            6.5745824575424194e-01 -6.5745824575424194e-01</leafValues></_>
        <_>
          <internalNodes>
            0 -1 144 -6.9691347889602184e-03</internalNodes>
          <leafValues>
            7.5778955221176147e-01 -7.5778955221176147e-01</leafValues></_>
        <_>
          <internalNodes>
            0 -1 76 -8.7021559011191130e-04</internalNodes>
          <leafValues>
            -7.1561294794082642e-01 7.1561294794082642e-01</leafValues></_>
        <_>
          <internalNodes>
            0 -1 3 3.4282407164573669e-01</internalNodes>
          <leafValues>
            -7.3896807432174683e-01 7.3896807432174683e-01</leafValues></_>
        <_>
          <internalNodes>
            0 -1 33 1.0528604034334421e-03</internalNodes>
          <leafValues>
            7.0524698495864868e-01 -7.0524698495864868e-01</leafValues></_>
        <_>
          <internalNodes>
            0 -1 50 3.5590298473834991e-02</internalNodes>
          <leafValues>
            -7.0225411653518677e-01 7.0225411653518677e-01</leafValues></_>
        <_>
          <internalNodes>
            0 -1 33 -5.4211926180869341e-04</internalNodes>
          <leafValues>
            -6.3591933250427246e-01 6.3591933250427246e-01</leafValues></_>
        <_>
          <internalNodes>
            0 -1 69 -3.3288593403995037e-03</internalNodes>
          <leafValues>
            6.1097490787506104e-01 -6.1097490787506104e-01</leafValues></_>
        <_>
          <internalNodes>
            0 -1 138 -5.6858488824218512e-04</internalNodes>
          <leafValues>
            -7.3782718181610107e-01 7.3782718181610107e-01</leafValues></_>
        <_>
          <internalNodes>
            0 -1 63 8.6496472358703613e-02</internalNodes>
          <leafValues>
            -6.0107934474945068e-01 6.0107934474945068e-01</leafValues></_>
        <_>
          <internalNodes>
            0 -1 120 -4.5714847510680556e-04</internalNodes>
          <leafValues>
            -7.7352845668792725e-01 7.7352845668792725e-01</leafValues></_></weakClassifiers></_>
    <!-- stage 9 -->
    <_>
      <maxWeakCount>12</maxWeakCount>
      <stageThreshold>-7.7393257617950439e-01</stageThreshold>
      <weakClassifiers>
        <_>
          <internalNodes>
            0 -1 53 2.2301669232547283e-03</internalNodes>
          <leafValues>
            1.6829330921173096e+00 -1.6829330921173096e+00</leafValues></_>
        <_>
          <internalNodes>
            0 -1 44 -1.0660286061465740e-03</internalNodes>
          <leafValues>
            -8.2152509689331055e-01 8.2152509689331055e-01</leafValues></_>
        <_>
          <internalNodes>
            0 -1 22 7.6865842565894127e-03</internalNodes>
          <leafValues>
            -9.2315733432769775e-01 9.2315733432769775e-01</leafValues></_>
        <_>
          <internalNodes>
            0 -1 133 1.2712521129287779e-04</internalNodes>
          <leafValues>
            8.0413478612899780e-01 -8.0413478612899780e-01</leafValues></_>
        <_>
          <internalNodes>
            0 -1 146 -5.5435327813029289e-03</internalNodes>
          <leafValues>
            6.9940972328186035e-01 -6.9940972328186035e-01</leafValues></_>
        <_>
          <internalNodes>
            0 -1 2 1.1367513239383698e-01</internalNodes>
          <leafValues>
            -6.5339499711990356e-01 6.5339499711990356e-01</leafValues></_>
        <_>
          <internalNodes>
            0 -1 113 -4.0202867239713669e-04</internalNodes>
          <leafValues>
            -7.4475377798080444e-01 7.4475377798080444e-01</leafValues></_>
        <_>
          <internalNodes>
            0 -1 39 5.2117155864834785e-03</internalNodes>
          <leafValues>
            -6.9416218996047974e-01 6.9416218996047974e-01</leafValues></_>
        <_>
          <internalNodes>
            0 -1 18 -4.4892175355926156e-04</internalNodes>
          <leafValues>
            -7.2791928052902222e-01 7.2791928052902222e-01</leafValues></_>
        <_>
          <internalNodes>
            0 -1 18 3.8086227141320705e-04</internalNodes>
          <leafValues>
            6.8684798479080200e-01 -6.8684798479080200e-01</leafValues></_>
        <_>
          <internalNodes>
            0 -1 99 -1.0690942406654358e-02</internalNodes>
          <leafValues>
            6.6510593891143799e-01 -6.6510593891143799e-01</leafValues></_>
        <_>
          <internalNodes>
            0 -1 145 -2.7767667779698968e-04</internalNodes>
          <leafValues>
            -7.2402960062026978e-01 7.2402960062026978e-01</leafValues></_></weakClassifiers></_></stages>
  <features>
    <_>
      <rects>
        <_>
          0 0 22 8 -1.</_>
        <_>
          11 0 11 8 2.</_></rects>
      <tilted>0</tilted></_>
    <_>
      <rects>
        <_>
          0 1 4 16 -1.</_>
        <_>
          2 1 2 16 2.</_></rects>
      <tilted>0</tilted></_>
    <_>
      <rects>
        <_>
          0 1 21 29 -1.</_>
        <_>
          7 1 7 29 3.</_></rects>
      <tilted>0</tilted></_>
    <_>
      <rects>
        <_>
          0 1 30 27 -1.</_>
        <_>
          10 1 10 27 3.</_></rects>
      <tilted>0</tilted></_>
    <_>
      <rects>
        <_>
          0 1 22 5 -1.</_>
        <_>
          11 1 11 5 2.</_></rects>
      <tilted>0</tilted></_>
    <_>
      <rects>
        <_>
          0 2 12 13 -1.</_>
        <_>
          6 2 6 13 2.</_></rects>
      <tilted>0</tilted></_>
    <_>
      <rects>
        <_>
          0 2 18 26 -1.</_>
        <_>
          6 2 6 26 3.</_></rects>
      <tilted>0</tilted></_>
    <_>
      <rects>
        <_>
          0 2 27 26 -1.</_>
        <_>
          9 2 9 26 3.</_></rects>
      <tilted>0</tilted></_>
    <_>
      <rects>
        <_>
          0 3 1 3 -1.</_>
        <_>
          0 4 1 1 3.</_></rects>
      <tilted>0</tilted></_>
    <_>
      <rects>
        <_>
          0 3 21 26 -1.</_>
        <_>
          7 3 7 26 3.</_></rects>
      <tilted>0</tilted></_>
    <_>
      <rects>
        <_>
          0 3 24 6 -1.</_>
        <_>
          8 3 8 6 3.</_></rects>
      <tilted>0</tilted></_>
    <_>
      <rects>
        <_>
          0 4 30 26 -1.</_>
        <_>
          15 4 15 26 2.</_></rects>
      <tilted>0</tilted></_>
    <_>
      <rects>
        <_>
          0 5 9 11 -1.</_>
        <_>
          3 5 3 11 3.</_></rects>
      <tilted>0</tilted></_>
    <_>
      <rects>
        <_>
          0 6 2 3 -1.</_>
        <_>
          0 7 2 1 3.</_></rects>
      <tilted>0</tilted></_>
    <_>
      <rects>
        <_>
          0 7 9 20 -1.</_>
        <_>
          3 7 3 20 3.</_></rects>
      <tilted>0</tilted></_>
    <_>
      <rects>
        <_>
          0 7 24 20 -1.</_>
        <_>
          8 7 8 20 3.</_></rects>
      <tilted>0</tilted></_>
    <_>
      <rects>
        <_>
          0 7 24 23 -1.</_>
        <_>
          8 7 8 23 3.</_></rects>
      <tilted>0</tilted></_>
    <_>
      <rects>
        <_>
          0 7 18 22 -1.</_>
        <_>
          0 18 18 11 2.</_></rects>
      <tilted>0</tilted></_>
    <_>
      <rects>
        <_>
          0 8 4 3 -1.</_>
        <_>
          0 9 4 1 3.</_></rects>
      <tilted>0</tilted></_>
    <_>
      <rects>
        <_>
          0 8 30 15 -1.</_>
        <_>
          15 8 15 15 2.</_></rects>
      <tilted>0</tilted></_>
    <_>
      <rects>
        <_>
          0 8 30 19 -1.</_>
        <_>
          15 8 15 19 2.</_></rects>
      <tilted>0</tilted></_>
    <_>
      <rects>
        <_>
          0 9 6 20 -1.</_>
        <_>
          2 9 2 20 3.</_></rects>
      <tilted>0</tilted></_>
    <_>
      <rects>
        <_>
          0 10 6 5 -1.</_>
        <_>
          2 10 2 5 3.</_></rects>
      <tilted>0</tilted></_>
    <_>
      <rects>
        <_>
          0 11 14 19 -1.</_>
        <_>
          7 11 7 19 2.</_></rects>
      <tilted>0</tilted></_>
    <_>
      <rects>
        <_>
          0 12 4 1 -1.</_>
        <_>
          2 12 2 1 2.</_></rects>
      <tilted>0</tilted></_>
    <_>
      <rects>
        <_>
          0 14 30 16 -1.</_>
        <_>
          0 14 15 8 2.</_>
        <_>
          15 22 15 8 2.</_></rects>
      <tilted>0</tilted></_>
    <_>
      <rects>
        <_>
          0 18 14 2 -1.</_>
        <_>
          7 18 7 2 2.</_></rects>
      <tilted>0</tilted></_>
    <_>
      <rects>
        <_>
          0 18 21 12 -1.</_>
        <_>
          0 24 21 6 2.</_></rects>
      <tilted>0</tilted></_>
    <_>
      <rects>
        <_>
          0 20 24 8 -1.</_>
        <_>
          0 24 24 4 2.</_></rects>
      <tilted>0</tilted></_>
    <_>
      <rects>
        <_>
          0 24 3 6 -1.</_>
        <_>
          0 27 3 3 2.</_></rects>
      <tilted>0</tilted></_>
    <_>
      <rects>
        <_>
          1 0 12 10 -1.</_>
        <_>
          1 5 12 5 2.</_></rects>
      <tilted>0</tilted></_>
    <_>
      <rects>
        <_>
          1 8 15 22 -1.</_>
        <_>
          1 19 15 11 2.</_></rects>
      <tilted>0</tilted></_>
    <_>
      <rects>
        <_>
          1 11 4 18 -1.</_>
        <_>
          1 20 4 9 2.</_></rects>
      <tilted>0</tilted></_>
    <_>
      <rects>
        <_>
          1 17 4 3 -1.</_>
        <_>
          1 18 4 1 3.</_></rects>
      <tilted>0</tilted></_>
    <_>
      <rects>
        <_>
          2 2 9 3 -1.</_>
        <_>
          2 3 9 1 3.</_></rects>
      <tilted>0</tilted></_>
    <_>
      <rects>
        <_>
          2 3 11 24 -1.</_>
        <_>
          2 15 11 12 2.</_></rects>
      <tilted>0</tilted></_>
    <_>
      <rects>
        <_>
          2 4 28 26 -1.</_>
        <_>
          2 4 14 13 2.</_>
        <_>
          16 17 14 13 2.</_></rects>
      <tilted>0</tilted></_>
    <_>
      <rects>
        <_>
          2 4 28 26 -1.</_>
        <_>
          2 17 28 13 2.</_></rects>
      <tilted>0</tilted></_>
    <_>
      <rects>
        <_>
          2 14 4 8 -1.</_>
        <_>
          4 14 2 8 2.</_></rects>
      <tilted>0</tilted></_>
    <_>
      <rects>
        <_>
          2 18 6 3 -1.</_>
        <_>
          4 18 2 3 3.</_></rects>
      <tilted>0</tilted></_>
    <_>
      <rects>
        <_>
          2 20 8 8 -1.</_>
        <_>
          2 20 4 4 2.</_>
        <_>
          6 24 4 4 2.</_></rects>
      <tilted>0</tilted></_>
    <_>
      <rects>
        <_>
          2 29 18 1 -1.</_>
        <_>
          8 29 6 1 3.</_></rects>
      <tilted>0</tilted></_>
    <_>
      <rects>
        <_>
          3 0 19 6 -1.</_>
        <_>
          3 3 19 3 2.</_></rects>
      <tilted>0</tilted></_>
    <_>
      <rects>
        <_>
          3 12 17 3 -1.</_>
        <_>
          3 13 17 1 3.</_></rects>
      <tilted>0</tilted></_>
    <_>
      <rects>
        <_>
          3 14 8 3 -1.</_>
        <_>
          3 15 8 1 3.</_></rects>
      <tilted>0</tilted></_>
    <_>
      <rects>
        <_>
          3 15 3 3 -1.</_>
        <_>
          4 15 1 3 3.</_></rects>
      <tilted>0</tilted></_>
    <_>
      <rects>
        <_>
          3 24 3 1 -1.</_>
        <_>
          4 24 1 1 3.</_></rects>
      <tilted>0</tilted></_>
    <_>
      <rects>
        <_>
          3 26 16 4 -1.</_>
        <_>
          3 28 16 2 2.</_></rects>
      <tilted>0</tilted></_>
    <_>
      <rects>
        <_>
          3 29 15 1 -1.</_>
        <_>
          8 29 5 1 3.</_></rects>
      <tilted>0</tilted></_>
    <_>
      <rects>
        <_>
          5 0 10 6 -1.</_>
        <_>
          5 3 10 3 2.</_></rects>
      <tilted>0</tilted></_>
    <_>
      <rects>
        <_>
          5 0 21 4 -1.</_>
        <_>
          5 2 21 2 2.</_></rects>
      <tilted>0</tilted></_>
    <_>
      <rects>
        <_>
          5 5 2 1 -1.</_>
        <_>
          6 5 1 1 2.</_></rects>
      <tilted>0</tilted></_>
    <_>
      <rects>
        <_>
          5 11 12 6 -1.</_>
        <_>
          5 13 12 2 3.</_></rects>
      <tilted>0</tilted></_>
    <_>
      <rects>
        <_>
          5 14 7 3 -1.</_>
        <_>
          5 15 7 1 3.</_></rects>
      <tilted>0</tilted></_>
    <_>
      <rects>
        <_>
          6 7 1 15 -1.</_>
        <_>
          6 12 1 5 3.</_></rects>
      <tilted>0</tilted></_>
    <_>
      <rects>
        <_>
          6 16 13 6 -1.</_>
        <_>
          6 19 13 3 2.</_></rects>
      <tilted>0</tilted></_>
    <_>
      <rects>
        <_>
          6 17 2 2 -1.</_>
        <_>
          6 17 1 1 2.</_>
        <_>
          7 18 1 1 2.</_></rects>
      <tilted>0</tilted></_>
    <_>
      <rects>
        <_>
          7 0 12 4 -1.</_>
        <_>
          7 2 12 2 2.</_></rects>
      <tilted>0</tilted></_>
    <_>
      <rects>
        <_>
          7 9 16 14 -1.</_>
        <_>
          15 9 8 14 2.</_></rects>
      <tilted>0</tilted></_>
    <_>
      <rects>
        <_>
          7 14 9 15 -1.</_>
        <_>
          7 19 9 5 3.</_></rects>
      <tilted>0</tilted></_>
    <_>
      <rects>
        <_>
          7 27 2 1 -1.</_>
        <_>
          8 27 1 1 2.</_></rects>
      <tilted>0</tilted></_>
    <_>
      <rects>
        <_>
          7 28 14 2 -1.</_>
        <_>
          14 28 7 2 2.</_></rects>
      <tilted>0</tilted></_>
    <_>
      <rects>
        <_>
          8 0 11 2 -1.</_>
        <_>
          8 1 11 1 2.</_></rects>
      <tilted>0</tilted></_>
    <_>
      <rects>
        <_>
          8 0 15 20 -1.</_>
        <_>
          8 10 15 10 2.</_></rects>
      <tilted>0</tilted></_>
    <_>
      <rects>
        <_>
          8 1 6 16 -1.</_>
        <_>
          8 1 3 8 2.</_>
        <_>
          11 9 3 8 2.</_></rects>
      <tilted>0</tilted></_>
    <_>
      <rects>
        <_>
          8 2 22 9 -1.</_>
        <_>
          19 2 11 9 2.</_></rects>
      <tilted>0</tilted></_>
    <_>
      <rects>
        <_>
          8 8 20 15 -1.</_>
        <_>
          8 13 20 5 3.</_></rects>
      <tilted>0</tilted></_>
    <_>
      <rects>
        <_>
          8 10 9 12 -1.</_>
        <_>
          11 10 3 12 3.</_></rects>
      <tilted>0</tilted></_>
    <_>
      <rects>
        <_>
          8 20 3 1 -1.</_>
        <_>
          9 20 1 1 3.</_></rects>
      <tilted>0</tilted></_>
    <_>
      <rects>
        <_>
          8 21 6 5 -1.</_>
        <_>
          10 21 2 5 3.</_></rects>
      <tilted>0</tilted></_>
    <_>
      <rects>
        <_>
          8 22 12 8 -1.</_>
        <_>
          8 22 6 4 2.</_>
        <_>
          14 26 6 4 2.</_></rects>
      <tilted>0</tilted></_>
    <_>
      <rects>
        <_>
          8 23 18 3 -1.</_>
        <_>
          14 23 6 3 3.</_></rects>
      <tilted>0</tilted></_>
    <_>
      <rects>
        <_>
          8 23 12 6 -1.</_>
        <_>
          8 23 6 3 2.</_>
        <_>
          14 26 6 3 2.</_></rects>
      <tilted>0</tilted></_>
    <_>
      <rects>
        <_>
          9 2 9 4 -1.</_>
        <_>
          12 2 3 4 3.</_></rects>
      <tilted>0</tilted></_>
    <_>
      <rects>
        <_>
          9 2 21 16 -1.</_>
        <_>
          16 2 7 16 3.</_></rects>
      <tilted>0</tilted></_>
    <_>
      <rects>
        <_>
          9 4 9 3 -1.</_>
        <_>
          9 5 9 1 3.</_></rects>
      <tilted>0</tilted></_>
    <_>
      <rects>
        <_>
          9 5 6 3 -1.</_>
        <_>
          9 6 6 1 3.</_></rects>
      <tilted>0</tilted></_>
    <_>
      <rects>
        <_>
          10 0 20 20 -1.</_>
        <_>
          10 10 20 10 2.</_></rects>
      <tilted>0</tilted></_>
    <_>
      <rects>
        <_>
          10 5 2 2 -1.</_>
        <_>
          10 5 1 1 2.</_>
        <_>
          11 6 1 1 2.</_></rects>
      <tilted>0</tilted></_>
    <_>
      <rects>
        <_>
          10 6 20 22 -1.</_>
        <_>
          10 6 10 11 2.</_>
        <_>
          20 17 10 11 2.</_></rects>
      <tilted>0</tilted></_>
    <_>
      <rects>
        <_>
          10 9 17 6 -1.</_>
        <_>
          10 12 17 3 2.</_></rects>
      <tilted>0</tilted></_>
    <_>
      <rects>
        <_>
          10 13 1 3 -1.</_>
        <_>
          10 14 1 1 3.</_></rects>
      <tilted>0</tilted></_>
    <_>
      <rects>
        <_>
          10 14 14 2 -1.</_>
        <_>
          10 14 7 1 2.</_>
        <_>
          17 15 7 1 2.</_></rects>
      <tilted>0</tilted></_>
    <_>
      <rects>
        <_>
          11 6 8 1 -1.</_>
        <_>
          15 6 4 1 2.</_></rects>
      <tilted>0</tilted></_>
    <_>
      <rects>
        <_>
          11 16 3 2 -1.</_>
        <_>
          12 16 1 2 3.</_></rects>
      <tilted>0</tilted></_>
    <_>
      <rects>
        <_>
          11 16 8 10 -1.</_>
        <_>
          11 16 4 5 2.</_>
        <_>
          15 21 4 5 2.</_></rects>
      <tilted>0</tilted></_>
    <_>
      <rects>
        <_>
          11 18 3 3 -1.</_>
        <_>
          12 18 1 3 3.</_></rects>
      <tilted>0</tilted></_>
    <_>
      <rects>
        <_>
          12 0 3 12 -1.</_>
        <_>
          12 4 3 4 3.</_></rects>
      <tilted>0</tilted></_>
    <_>
      <rects>
        <_>
          12 8 6 12 -1.</_>
        <_>
          14 8 2 12 3.</_></rects>
      <tilted>0</tilted></_>
    <_>
      <rects>
        <_>
          12 8 18 18 -1.</_>
        <_>
          12 8 9 9 2.</_>
        <_>
          21 17 9 9 2.</_></rects>
      <tilted>0</tilted></_>
    <_>
      <rects>
        <_>
          12 13 9 15 -1.</_>
        <_>
          12 18 9 5 3.</_></rects>
      <tilted>0</tilted></_>
    <_>
      <rects>
        <_>
          12 16 6 8 -1.</_>
        <_>
          12 16 3 4 2.</_>
        <_>
          15 20 3 4 2.</_></rects>
      <tilted>0</tilted></_>
    <_>
      <rects>
        <_>
          12 18 6 5 -1.</_>
        <_>
          14 18 2 5 3.</_></rects>
      <tilted>0</tilted></_>
    <_>
      <rects>
        <_>
          12 20 18 7 -1.</_>
        <_>
          21 20 9 7 2.</_></rects>
      <tilted>0</tilted></_>
    <_>
      <rects>
        <_>
          12 21 3 1 -1.</_>
        <_>
          13 21 1 1 3.</_></rects>
      <tilted>0</tilted></_>
    <_>
      <rects>
        <_>
          12 27 15 1 -1.</_>
        <_>
          17 27 5 1 3.</_></rects>
      <tilted>0</tilted></_>
    <_>
      <rects>
        <_>
          13 13 3 8 -1.</_>
        <_>
          14 13 1 8 3.</_></rects>
      <tilted>0</tilted></_>
    <_>
      <rects>
        <_>
          13 14 1 2 -1.</_>
        <_>
          13 15 1 1 2.</_></rects>
      <tilted>0</tilted></_>
    <_>
      <rects>
        <_>
          13 14 2 2 -1.</_>
        <_>
          13 14 1 1 2.</_>
        <_>
          14 15 1 1 2.</_></rects>
      <tilted>0</tilted></_>
    <_>
      <rects>
        <_>
          13 16 4 10 -1.</_>
        <_>
          13 16 2 5 2.</_>
        <_>
          15 21 2 5 2.</_></rects>
      <tilted>0</tilted></_>
    <_>
      <rects>
        <_>
          13 16 6 8 -1.</_>
        <_>
          13 16 3 4 2.</_>
        <_>
          16 20 3 4 2.</_></rects>
      <tilted>0</tilted></_>
    <_>
      <rects>
        <_>
          14 14 6 4 -1.</_>
        <_>
          16 14 2 4 3.</_></rects>
      <tilted>0</tilted></_>
    <_>
      <rects>
        <_>
          15 10 2 7 -1.</_>
        <_>
          16 10 1 7 2.</_></rects>
      <tilted>0</tilted></_>
    <_>
      <rects>
        <_>
          15 17 3 1 -1.</_>
        <_>
          16 17 1 1 3.</_></rects>
      <tilted>0</tilted></_>
    <_>
      <rects>
        <_>
          15 20 3 1 -1.</_>
        <_>
          16 20 1 1 3.</_></rects>
      <tilted>0</tilted></_>
    <_>
      <rects>
        <_>
          15 28 14 1 -1.</_>
        <_>
          22 28 7 1 2.</_></rects>
      <tilted>0</tilted></_>
    <_>
      <rects>
        <_>
          17 3 3 4 -1.</_>
        <_>
          18 3 1 4 3.</_></rects>
      <tilted>0</tilted></_>
    <_>
      <rects>
        <_>
          17 27 1 3 -1.</_>
        <_>
          17 28 1 1 3.</_></rects>
      <tilted>0</tilted></_>
    <_>
      <rects>
        <_>
          18 0 3 4 -1.</_>
        <_>
          19 0 1 4 3.</_></rects>
      <tilted>0</tilted></_>
    <_>
      <rects>
        <_>
          18 2 3 4 -1.</_>
        <_>
          19 2 1 4 3.</_></rects>
      <tilted>0</tilted></_>
    <_>
      <rects>
        <_>
          18 3 12 22 -1.</_>
        <_>
          22 3 4 22 3.</_></rects>
      <tilted>0</tilted></_>
    <_>
      <rects>
        <_>
          18 4 4 12 -1.</_>
        <_>
          18 8 4 4 3.</_></rects>
      <tilted>0</tilted></_>
    <_>
      <rects>
        <_>
          18 6 4 8 -1.</_>
        <_>
          20 6 2 8 2.</_></rects>
      <tilted>0</tilted></_>
    <_>
      <rects>
        <_>
          19 10 2 3 -1.</_>
        <_>
          19 11 2 1 3.</_></rects>
      <tilted>0</tilted></_>
    <_>
      <rects>
        <_>
          19 13 2 1 -1.</_>
        <_>
          20 13 1 1 2.</_></rects>
      <tilted>0</tilted></_>
    <_>
      <rects>
        <_>
          20 0 3 4 -1.</_>
        <_>
          21 0 1 4 3.</_></rects>
      <tilted>0</tilted></_>
    <_>
      <rects>
        <_>
          20 4 1 2 -1.</_>
        <_>
          20 5 1 1 2.</_></rects>
      <tilted>0</tilted></_>
    <_>
      <rects>
        <_>
          20 19 10 8 -1.</_>
        <_>
          20 19 5 4 2.</_>
        <_>
          25 23 5 4 2.</_></rects>
      <tilted>0</tilted></_>
    <_>
      <rects>
        <_>
          21 0 1 30 -1.</_>
        <_>
          21 15 1 15 2.</_></rects>
      <tilted>0</tilted></_>
    <_>
      <rects>
        <_>
          21 1 3 1 -1.</_>
        <_>
          22 1 1 1 3.</_></rects>
      <tilted>0</tilted></_>
    <_>
      <rects>
        <_>
          21 6 7 3 -1.</_>
        <_>
          21 7 7 1 3.</_></rects>
      <tilted>0</tilted></_>
    <_>
      <rects>
        <_>
          22 0 3 13 -1.</_>
        <_>
          23 0 1 13 3.</_></rects>
      <tilted>0</tilted></_>
    <_>
      <rects>
        <_>
          22 1 3 10 -1.</_>
        <_>
          23 1 1 10 3.</_></rects>
      <tilted>0</tilted></_>
    <_>
      <rects>
        <_>
          22 1 6 1 -1.</_>
        <_>
          24 1 2 1 3.</_></rects>
      <tilted>0</tilted></_>
    <_>
      <rects>
        <_>
          22 5 4 1 -1.</_>
        <_>
          24 5 2 1 2.</_></rects>
      <tilted>0</tilted></_>
    <_>
      <rects>
        <_>
          22 10 2 2 -1.</_>
        <_>
          22 10 1 1 2.</_>
        <_>
          23 11 1 1 2.</_></rects>
      <tilted>0</tilted></_>
    <_>
      <rects>
        <_>
          22 12 8 13 -1.</_>
        <_>
          26 12 4 13 2.</_></rects>
      <tilted>0</tilted></_>
    <_>
      <rects>
        <_>
          22 20 7 6 -1.</_>
        <_>
          22 23 7 3 2.</_></rects>
      <tilted>0</tilted></_>
    <_>
      <rects>
        <_>
          22 29 3 1 -1.</_>
        <_>
          23 29 1 1 3.</_></rects>
      <tilted>0</tilted></_>
    <_>
      <rects>
        <_>
          23 0 6 18 -1.</_>
        <_>
          23 9 6 9 2.</_></rects>
      <tilted>0</tilted></_>
    <_>
      <rects>
        <_>
          23 12 6 13 -1.</_>
        <_>
          26 12 3 13 2.</_></rects>
      <tilted>0</tilted></_>
    <_>
      <rects>
        <_>
          23 29 3 1 -1.</_>
        <_>
          24 29 1 1 3.</_></rects>
      <tilted>0</tilted></_>
    <_>
      <rects>
        <_>
          24 0 6 14 -1.</_>
        <_>
          27 0 3 14 2.</_></rects>
      <tilted>0</tilted></_>
    <_>
      <rects>
        <_>
          24 4 6 1 -1.</_>
        <_>
          27 4 3 1 2.</_></rects>
      <tilted>0</tilted></_>
    <_>
      <rects>
        <_>
          24 13 2 6 -1.</_>
        <_>
          24 16 2 3 2.</_></rects>
      <tilted>0</tilted></_>
    <_>
      <rects>
        <_>
          24 14 3 1 -1.</_>
        <_>
          25 14 1 1 3.</_></rects>
      <tilted>0</tilted></_>
    <_>
      <rects>
        <_>
          24 16 2 1 -1.</_>
        <_>
          25 16 1 1 2.</_></rects>
      <tilted>0</tilted></_>
    <_>
      <rects>
        <_>
          24 18 2 8 -1.</_>
        <_>
          24 22 2 4 2.</_></rects>
      <tilted>0</tilted></_>
    <_>
      <rects>
        <_>
          25 4 5 3 -1.</_>
        <_>
          25 5 5 1 3.</_></rects>
      <tilted>0</tilted></_>
    <_>
      <rects>
        <_>
          26 3 2 2 -1.</_>
        <_>
          26 3 1 1 2.</_>
        <_>
          27 4 1 1 2.</_></rects>
      <tilted>0</tilted></_>
    <_>
      <rects>
        <_>
          26 16 3 3 -1.</_>
        <_>
          26 17 3 1 3.</_></rects>
      <tilted>0</tilted></_>
    <_>
      <rects>
        <_>
          27 2 2 2 -1.</_>
        <_>
          27 2 1 1 2.</_>
        <_>
          28 3 1 1 2.</_></rects>
      <tilted>0</tilted></_>
    <_>
      <rects>
        <_>
          27 16 2 3 -1.</_>
        <_>
          27 17 2 1 3.</_></rects>
      <tilted>0</tilted></_>
    <_>
      <rects>
        <_>
          27 28 3 1 -1.</_>
        <_>
          28 28 1 1 3.</_></rects>
      <tilted>0</tilted></_>
    <_>
      <rects>
        <_>
          28 3 2 20 -1.</_>
        <_>
          29 3 1 20 2.</_></rects>
      <tilted>0</tilted></_>
    <_>
      <rects>
        <_>
          28 3 2 3 -1.</_>
        <_>
          28 4 2 1 3.</_></rects>
      <tilted>0</tilted></_>
    <_>
      <rects>
        <_>
          28 4 2 21 -1.</_>
        <_>
          29 4 1 21 2.</_></rects>
      <tilted>0</tilted></_></features></cascade>
</opencv_storage>
